-3
-2
-2
-2
-1
-2
-2
-1
-2
-2
-1
-1
-1
-1
-1
-1
-2
-1
2
3
2
3
3
2
2
1
2
-1
-22
12
14
17
13
-13
-13
-4
-1
-14
-10
20
-9
24
-14
-31
3
-7
-3
-16
23
10
19
14
10
-24
3
1
-2
3
1
-3
2
1
-4
2
0
0
0
0
-2
0
-1
-1
-4
-2
-2
-4
-2
-1
-5
-2
-1
1
-3
-3
2
-5
-5
5
2
1
-2
-2
-2
1
-3
-1
5
3
4
-5
-4
-3
2
-4
-3
7
3
4
7
-1
-13
7
20
-16
-1
6
-12
-12
5
3
8
8
2
2
11
-35
-15
22
-1
-19
11
-9
-8
14
11
9
-23
-16
12
14
16
-29
5
-23
-1
11
-19
-4
21
2
8
11
30
-25
19
-18
1
20
16
-8
-8
-34
34
-17
-21
15
10
12
0
-19
-13
-8
-14
4
8
-14
-13
22
-11
18
4
-8
13
7
-20
9
13
-15
5
0
-20
-35
6
-22
-15
2
-7
17
18
19
0
7
11
11
-3
1
12
-5
3
6
-13
10
8
-3
15
-16
28
7
17
-9
16
-33
-4
-30
10
-23
-11
7
0
3
-32
-14
45
17
-21
-37
-12
20
6
-33
22
4
56
-2
1
-7
-7
-8
-5
0
-1
12
-10
7
5
1
4
7
-2
9
-1
3
-5
4
-5
1
5
-1
-2
-3
-10
0
-4
-3
-7
18
3
9
3
6
-21
-14
-5
0
4
9
5
0
3
-5
-15
1
1
20
-14
8
6
14
14
1
0
4
5
2
-15
-18
-34
-4
14
5
20
-25
11
-10
15
11
7
-15
4
4
-12
3
3
-4
34
60
46
-1
5
5
-47
-68
-29
13
-2
17
37
-44
-30
-26
27
4
-45
-44
-88
-31
6
54
65
74
13
4
13
-1
34
-17
-7
-21
-7
15
6
11
-4
19
-43
-5
-22
-6
9
18
6
-36
-11
-18
0
6
-2
42
2
4
6
4
-3
-1
-4
4
-5
8
-2
2
-7
-3
-1
0
-9
-1
2
8
8
1
7
-4
-5
-1
-4
-13
-8
2
19
15
-4
0
-6
-6
-3
-5
7
7
13
9
-8
-9
-11
3
-7
-12
15
1
20
-10
-6
-3
-14
15
-5
13
-7
12
2
-17
14
3
-1
1
-8
-6
8
-4
1
-15
-9
17
-1
-15
-5
13
1
-6
15
-33
-7
-4
20
1
-20
21
7
26
-32
4
59
-3
-40
3
10
-24
-25
-9
-1
4
35
-12
-14
17
16
-10
3
8
-4
5
-2
-3
1
-2
-6
5
4
-1
3
2
-8
3
-1
-5
5
-8
-3
5
-2
-1
1
3
-1
-3
-3
4
-12
-3
4
0
9
10
-8
-10
7
7
-3
4
4
-7
6
-5
-2
-2
1
-5
8
0
-11
12
24
-24
3
-1
-58
-16
-3
48
26
28
-46
-31
-46
24
55
5
-18
22
45
72
-27
-26
-26
16
-3
1
-48
-1
-5
-17
7
11
-12
12
4
1
3
-6
-3
8
-2
-16
4
8
-3
8
-4
9
-10
0
-8
3
8
-2
-62
-19
-8
40
52
-43
4
14
22
-4
-20
57
22
31
-38
-24
-40
10
6
7
-14
54
29
5
-43
-61
21
6
-13
-3
0
-5
-3
-18
6
7
13
-8
0
5
-4
-4
-4
5
0
-2
-1
-1
1
4
-9
0
12
-7
-10
-4
4
-23
22
7
-6
18
-9
15
-8
10
-6
9
-7
-10
15
-15
-7
-17
9
-15
14
-4
4
7
6
-4
-1
3
2
-7
-6
5
-4
-3
5
5
6
12
-1
1
5
-1
-3
2
0
6
-9
-8
-6
0
-6
-2
-1
-4
0
-5
1
3
-7
1
5
-1
-2
-1
1
3
2
-2
3
5
2
0
-1
3
3
0
1
2
0
7
11
-7
-13
-15
-10
-1
14
2
-9
8
7
-20
24
-16
-8
38
-8
-1
-9
15
-5
16
1
0
5
-23
5
13
2
6
-4
2
-10
-6
-6
10
4
1
5
6
-8
-8
-10
-9
4
5
2
-2
-4
2
9
-5
-6
-1
3
1
10
8
0
-13
-8
0
9
3
2
-6
2
8
-8
-9
-6
-2
-1
-8
6
9
-3
-6
4
5
-6
-3
20
-10
1
2
-6
-10
0
2
-8
6
3
-4
1
0
2
4
6
-1
-2
1
-5
8
-7
1
5
-6
-3
-7
6
-2
4
12
4
5
-1
-9
-13
-8
-6
1
-2
9
1
-3
-3
11
-7
-7
-4
11
6
9
-15
-5
-21
0
-6
-13
8
-9
-15
23
17
25
-5
25
19
-1
-31
29
-12
-20
5
-2
5
9
9
-14
-29
-13
8
0
3
3
21
-3
2
4
-10
2
7
12
-5
-21
12
4
-10
5
23
9
19
-3
-27
-9
-11
-13
-20
33
9
4
-22
-13
15
-20
-3
-32
24
-9
7
4
8
28
-11
-3
-39
25
11
35
29
-21
10
-50
-8
-6
-2
12
17
1
10
-1
2
-1
7
-8
-8
7
-3
-5
4
-4
-6
0
-8
-8
-12
-17
-9
-3
8
2
-9
18
14
-10
3
6
2
-18
1
11
4
6
-4
-32
12
4
6
-20
4
4
7
-13
-6
4
12
-9
-4
2
-4
2
-5
-6
0
-3
4
14
-1
-2
-2
-2
-3
0
-4
-2
1
3
3
-3
3
0
-4
1
-3
-6
-18
13
11
-4
-1
12
5
-8
-19
-11
2
9
2
-10
7
6
0
7
-13
20
6
-14
-10
-1
-1
2
3
-11
2
1
0
-18
-9
0
23
11
8
5
3
-4
-14
-13
5
6
6
2
16
15
-4
-12
-10
-1
-2
-4
4
3
8
-6
-1
-2
-2
-4
-2
-2
6
6
-5
-4
-2
-3
-2
0
4
5
2
7
0
2
6
3
3
11
-7
-10
-9
4
4
-3
5
-12
-7
-12
2
-16
-5
1
5
5
-5
-10
-3
-5
0
6
21
1
8
13
23
19
-13
1
-7
-9
-2
0
-13
19
9
-2
-29
13
-11
0
15
-1
-25
-13
4
0
17
-25
10
6
9
-27
-10
74
-32
-1
5
-17
-17
27
1
-52
19
15
-16
-4
13
-10
15
78
-13
-50
14
4
-14
31
13
-37
25
-8
-25
9
12
-21
-7
17
10
1
-12
2
3
13
-8
-9
4
11
0
1
2
12
3
-9
-18
4
-3
-1
2
1
6
3
1
1
3
-4
-8
-2
-2
2
4
4
1
2
1
-5
-2
-1
0
5
-1
1
3
1
-10
-18
1
-9
10
1
15
10
1
-3
0
2
-3
-6
-6
8
4
1
-19
7
-3
-8
-1
4
24
-4
2
0
-2
-4
-3
2
0
-3
-9
-2
9
11
-2
2
10
13
4
5
8
-9
10
-8
-10
-4
6
-9
-4
3
-20
-35
-119
75
58
-19
57
13
-13
31
-44
75
2
-17
23
-81
3
14
-12
40
66
-19
-53
10
-38
26
-18
-10
2
10
-43
22
-7
26
-10
8
2
3
-14
47
-27
48
36
21
-114
-30
-34
67
-24
-20
22
-21
35
6
54
-18
0
97
-38
27
-36
8
-3
-75
-26
-59
-103
-5
12
11
6
36
10
64
69
26
20
-35
9
2
-44
-2
1
2
-5
-1
4
-3
0
3
-3
4
2
-2
2
0
-2
-3
0
0
3
3
-1
0
0
-1
-1
-3
19
-6
-11
-7
19
0
-19
1
7
7
-2
8
-10
13
-7
-13
-16
14
7
-10
-27
8
18
1
-6
1
8
0
0
1
0
1
0
1
1
1
2
2
1
1
1
1
1
1
0
1
1
0
1
0
0
0
0
-1
0
-3
2
2
0
-5
1
3
-1
-5
-3
-1
-2
-2
-3
-6
-1
-4
3
0
-3
1
-1
-4
5
2
-2
-10
0
-14
-14
1
-7
-9
1
-11
-5
3
5
2
-4
2
13
-7
-3
4
17
7
14
3
3
4
8
-3
2
7
-2
-2
-2
19
-1
-13
-6
-5
15
2
-19
3
19
2
-13
-13
4
28
-9
4
-6
8
-2
-13
-9
-2
-5
5
-1
-13
14
0
-4
4
-1
-4
7
-3
-3
4
-6
8
6
-1
-4
0
-3
-8
9
0
5
-2
-33
19
7
28
23
-60
14
1
0
-47
22
40
14
27
-13
-17
-29
10
-9
2
-3
-7
12
-21
13
-1
13
9
-11
2
12
-7
2
3
4
-12
-3
-16
1
-11
15
3
6
-20
3
-8
12
18
-3
-13
2
-8
-8
20
-24
20
5
-15
17
-7
-32
20
27
0
-6
-4
-10
18
-9
-1
6
-14
2
4
2
1
-9
6
0
14
-15
-24
-24
13
-6
31
16
-42
15
32
-33
27
19
-10
-5
-39
3
14
25
59
39
-31
29
-75
-27
24
-1
-26
1
3
3
1
4
2
0
2
0
1
6
0
2
4
2
-1
2
0
-2
-2
-5
0
-3
-3
1
-2
-1
24
-14
18
13
0
-16
-45
29
4
-16
-33
43
13
3
-29
-20
40
-22
12
-63
14
41
25
-39
-9
35
-11
